digraph Tree {
node [shape=box, style="filled, rounded", color="black", fontname="helvetica"] ;
edge [fontname="helvetica"] ;
0 [label="petal width (cm) <= 0.8\ngini = 0.66\nsamples = 98\nvalue = [43, 54, 53]\nclass = versicolor", fillcolor="#fdfffe"] ;
1 [label="gini = 0.0\nsamples = 29\nvalue = [43, 0, 0]\nclass = setosa", fillcolor="#e58139"] ;
0 -> 1 [labeldistance=2.5, labelangle=45, headlabel="True"] ;
2 [label="petal length (cm) <= 4.95\ngini = 0.5\nsamples = 69\nvalue = [0, 54, 53]\nclass = versicolor", fillcolor="#fbfffd"] ;
0 -> 2 [labeldistance=2.5, labelangle=-45, headlabel="False"] ;
3 [label="petal width (cm) <= 1.65\ngini = 0.18\nsamples = 38\nvalue = [0, 54, 6]\nclass = versicolor", fillcolor="#4fe88f"] ;
2 -> 3 ;
4 [label="gini = 0.0\nsamples = 33\nvalue = [0, 51, 0]\nclass = versicolor", fillcolor="#39e581"] ;
3 -> 4 ;
5 [label="sepal length (cm) <= 5.95\ngini = 0.44\nsamples = 5\nvalue = [0, 3, 6]\nclass = virginica", fillcolor="#c09cf2"] ;
3 -> 5 ;
6 [label="petal width (cm) <= 1.75\ngini = 0.48\nsamples = 2\nvalue = [0, 3, 2]\nclass = versicolor", fillcolor="#bdf6d5"] ;
5 -> 6 ;
7 [label="gini = 0.0\nsamples = 1\nvalue = [0, 0, 2]\nclass = virginica", fillcolor="#8139e5"] ;
6 -> 7 ;
8 [label="gini = 0.0\nsamples = 1\nvalue = [0, 3, 0]\nclass = versicolor", fillcolor="#39e581"] ;
6 -> 8 ;
9 [label="gini = 0.0\nsamples = 3\nvalue = [0, 0, 4]\nclass = virginica", fillcolor="#8139e5"] ;
5 -> 9 ;
10 [label="gini = 0.0\nsamples = 31\nvalue = [0, 0, 47]\nclass = virginica", fillcolor="#8139e5"] ;
2 -> 10 ;
}